208 30
nan -0.015712893 0.013056437 0.008388475 0.014997733 -0.005225541 -0.01141081 0.002735457 0.009684847 -0.009788978 0.014600995 0.008592918 0.0037054422 -0.0029395935 -0.016423909 -0.013793484 0.006974402 0.009438216 0.0030027726 0.01524677 0.008113023 -0.006788251 0.0030009376 0.011893938 -0.0024113918 0.011757417 0.001972945 -0.008971858 -0.00084804604 -0.0069491947 0.0072616525
solicitar 0.004785367 -0.19917907 0.40546986 -0.35144812 0.013171118 -0.5510225 0.06859517 -0.19852322 -0.042685267 -0.121865235 -0.32105526 0.23625363 0.33471325 0.16898532 0.0043240082 -0.27102348 0.18501137 0.37115157 -0.20546763 0.17356487 -0.15815736 0.4720441 -0.7649031 -0.0031708593 -0.010108279 0.65058285 -0.07061462 -0.035835363 -0.31714484 0.29540023
necesitar 0.02120494 -0.20654212 0.40688062 -0.35743707 -0.008344299 -0.55786353 0.08154221 -0.18702203 -0.03951207 -0.11924328 -0.2983403 0.2547747 0.35105008 0.2012591 0.008273267 -0.28709412 0.1885078 0.35482493 -0.181813 0.19419223 -0.16124457 0.49509203 -0.76853824 -0.012651841 0.0020787732 0.65828156 -0.07335881 -0.02305 -0.29778945 0.28648454
radiografia 0.024809843 -0.20745865 0.42931494 -0.36401287 0.018552586 -0.5656727 0.0709437 -0.2150586 -0.048341755 -0.082581304 -0.30037993 0.2534409 0.349455 0.20213893 0.009031033 -0.26850992 0.1825728 0.38533595 -0.18092762 0.18250392 -0.14606382 0.50382006 -0.75125945 -0.013088141 0.012074941 0.6763397 -0.09173885 -0.041157123 -0.31929097 0.27791464
ecografia -0.012846275 -0.20580989 0.4017404 -0.3438822 0.02510807 -0.54022557 0.093646675 -0.19577332 -0.02901672 -0.13883287 -0.33422986 0.26346898 0.35002857 0.16934215 -0.019522138 -0.2998228 0.19469212 0.39752445 -0.20900112 0.20155019 -0.15788959 0.5007612 -0.79819703 -0.03217792 0.0097218985 0.680633 -0.08626101 -0.037780486 -0.303613 0.28434765
meses 0.015963633 -0.2286613 0.42366543 -0.34062165 0.00035356954 -0.5633424 0.052577984 -0.18353415 -0.028762987 -0.107521884 -0.31838918 0.24884525 0.35769472 0.18073483 -0.016499946 -0.2940638 0.19724165 0.3882529 -0.20542274 0.19044265 -0.14698346 0.48826814 -0.77272964 -0.026105272 -0.02273907 0.6627648 -0.08542951 -0.03713605 -0.32076785 0.3064224
esperar 0.017233558 -0.19759074 0.4109298 -0.33500308 0.024777006 -0.53762126 0.08614606 -0.19473077 -0.04863614 -0.12267159 -0.32842666 0.23507184 0.32883123 0.191554 -0.002503056 -0.29195076 0.18933728 0.38202447 -0.19010961 0.17670381 -0.15564394 0.48578903 -0.7423864 -0.026243847 -0.009872662 0.6674334 -0.07022509 -0.041362967 -0.31799316 0.3006411
otorgar 0.02056496 -0.21966656 0.4241205 -0.34623525 0.0060643363 -0.5544188 0.07742821 -0.21161504 -0.026247865 -0.122149155 -0.30697852 0.23624253 0.3668478 0.19029097 -0.025734503 -0.2780368 0.20946504 0.362436 -0.21272814 0.19668868 -0.14630233 0.510506 -0.788088 -0.014882862 -0.01786846 0.6798655 -0.082196794 -0.017106414 -0.3028447 0.3150062
citas 0.0040756916 -0.2049699 0.42717472 -0.35676152 -0.0029863992 -0.55880195 0.06208293 -0.19266592 -0.050040726 -0.13424323 -0.31518015 0.24545777 0.35051048 0.17898999 -0.013927469 -0.2952745 0.19340792 0.3777025 -0.18313316 0.19490322 -0.1398737 0.4956801 -0.75647163 -0.011766386 0.013523721 0.6768123 -0.06547939 -0.016590113 -0.31531966 0.31292498
agenda 0.025207704 -0.21351407 0.4218939 -0.35559288 -0.0055228565 -0.5858388 0.060939744 -0.21445356 -0.025471998 -0.117827155 -0.32017234 0.25828338 0.3474052 0.20791586 -0.019654596 -0.29284787 0.19462387 0.39052472 -0.21373466 0.19148915 -0.16892865 0.5036067 -0.79924643 -0.039430756 0.009942155 0.6976532 -0.07066305 -0.022973752 -0.32621408 0.31038865
linea -0.012441219 -0.1691722 0.3880514 -0.3053606 0.020745592 -0.5070882 0.083556294 -0.19042075 -0.033960838 -0.11395426 -0.28757083 0.23182254 0.30894983 0.17840764 0.0022681637 -0.24736348 0.18969503 0.3329322 -0.19152933 0.15397638 -0.12764004 0.4431481 -0.69474477 -0.039205596 -0.021250265 0.63216484 -0.08242527 -0.006901105 -0.2586429 0.28668416
cancelar 0.0019582484 -0.15546833 0.34014845 -0.308318 0.026846997 -0.48514128 0.047902144 -0.1860081 -0.016056292 -0.09770901 -0.25883538 0.2154833 0.2826548 0.17241746 -0.010634748 -0.24132882 0.16312648 0.30743426 -0.17430477 0.16623381 -0.107754424 0.44260246 -0.6634081 -0.035132322 -0.017687807 0.58619297 -0.06464896 -0.010125396 -0.25261754 0.26495206
asesor 0.0030762048 -0.2066305 0.42674103 -0.34367093 0.011562216 -0.54436356 0.07680036 -0.2069054 -0.025427831 -0.1315943 -0.3246099 0.24396573 0.34935114 0.18934 -0.020119525 -0.3021682 0.19258787 0.38502845 -0.18243738 0.17868958 -0.14050989 0.50214195 -0.7679061 -0.040669657 0.0043969494 0.6543382 -0.0849923 -0.02238998 -0.32232535 0.29552904
manana 0.027502611 -0.2273352 0.42191643 -0.3795662 0.0071980953 -0.58879477 0.06084919 -0.215627 -0.03885048 -0.1415565 -0.3186417 0.2605702 0.37103263 0.1939411 -0.020787898 -0.29784274 0.20004778 0.37940747 -0.22527538 0.18987337 -0.17473832 0.51232517 -0.8304098 -0.023292068 0.0004382584 0.69520617 -0.088658854 -0.016318249 -0.32777146 0.32285535
nutricion -0.0012635158 -0.19277558 0.40852943 -0.3408218 0.018006649 -0.5229833 0.054078165 -0.19172674 -0.016736737 -0.124986514 -0.31657597 0.2282707 0.34710863 0.19772919 0.004992856 -0.27578777 0.18997057 0.36120465 -0.17776333 0.18941876 -0.14834058 0.4841354 -0.73229176 -0.029319596 0.010471158 0.6625427 -0.07844657 -0.021208577 -0.29645512 0.30501124
cadera 0.012095065 -0.17756476 0.38670248 -0.33532867 0.016888125 -0.5387598 0.07435526 -0.18761344 -0.039665643 -0.083223626 -0.27347204 0.24451855 0.30613005 0.18787552 0.012489077 -0.24589771 0.17799626 0.3394965 -0.16112462 0.15270603 -0.14288417 0.48064205 -0.72611135 -0.0005725737 0.007523012 0.6463765 -0.06887227 -0.008403538 -0.31217095 0.29340333
respuesta 0.012359976 -0.1967131 0.4295743 -0.3361237 -0.0030092606 -0.5656787 0.08902307 -0.18797861 -0.040288843 -0.10056668 -0.33387473 0.24670477 0.3353884 0.20548907 -0.0095657455 -0.2725946 0.18034281 0.36552882 -0.18275349 0.1720952 -0.1363501 0.48135552 -0.76725864 -0.01082243 -0.018014915 0.68780696 -0.057018448 -0.03578712 -0.3036372 0.31693724
atencion 0.001376766 -0.20798497 0.44744796 -0.35117048 0.00704864 -0.5852081 0.06744779 -0.20558289 -0.03812022 -0.11367876 -0.32201225 0.27028215 0.3616452 0.19793034 -0.021483358 -0.31462193 0.21557586 0.39237592 -0.20801662 0.2043539 -0.14361294 0.52064806 -0.8007436 -0.039731205 0.0045205825 0.7040567 -0.06876777 -0.03372572 -0.3256141 0.32255897
psicologia -0.0034705193 -0.21469297 0.4233775 -0.3413138 -0.0012371247 -0.5588431 0.072586834 -0.20371059 -0.030511446 -0.10388041 -0.30027598 0.24092165 0.34086427 0.18130289 0.012487779 -0.27112406 0.21388926 0.35635018 -0.21361075 0.1788424 -0.14607073 0.47499296 -0.77017105 -0.018883614 -0.015599264 0.67426443 -0.059069596 -0.038024552 -0.3173862 0.28719708
desear_permanecer 0.022940002 -0.14998516 0.33729926 -0.2637162 0.012657739 -0.4548652 0.060103256 -0.15932286 -0.014433463 -0.07750807 -0.26541865 0.19141509 0.26795796 0.13311346 -0.018303785 -0.24726135 0.17581674 0.30394942 -0.17568457 0.14617921 -0.12048478 0.39806682 -0.61052376 -0.009906891 -0.008216213 0.5502068 -0.061717458 -0.012754073 -0.23139869 0.23340905
control 0.01373596 -0.19322239 0.424019 -0.34022516 -0.0058723316 -0.56818175 0.07719209 -0.18275091 -0.036166623 -0.124123245 -0.2958367 0.2573484 0.36064216 0.1807263 0.004552921 -0.27321547 0.18732771 0.37939876 -0.20259652 0.1629248 -0.14797318 0.4712379 -0.77045727 -0.008861278 -0.011092712 0.672823 -0.05253024 -0.032532327 -0.31935412 0.31807753
llevo 0.01985804 -0.18966319 0.42423096 -0.3427001 0.015776262 -0.5456935 0.076317556 -0.18773553 -0.043901373 -0.101232514 -0.3158987 0.25347757 0.34134468 0.18446591 -0.009830717 -0.2904467 0.20325549 0.39049506 -0.20618974 0.17665842 -0.15965061 0.5027676 -0.7643694 -0.040420353 0.0068031587 0.6765143 -0.077069215 -0.022794047 -0.31768194 0.31572664
doctora 0.020371709 -0.2120212 0.41030082 -0.33759198 0.004908449 -0.56119585 0.077545874 -0.2140819 -0.051752925 -0.124588825 -0.31943038 0.27246967 0.36313683 0.20587459 -0.0202236 -0.30849677 0.21949944 0.3798165 -0.21648724 0.17958789 -0.1426912 0.5150135 -0.7962582 -0.043406583 -0.0064336453 0.7021853 -0.08378404 -0.016420037 -0.2969154 0.3116995
posible 0.0057375305 -0.20155005 0.43124533 -0.35501993 -0.0051729837 -0.54370236 0.056093335 -0.18986443 -0.025642056 -0.12073557 -0.33190516 0.24642386 0.32988125 0.18751255 0.0012045194 -0.29899397 0.20198473 0.382704 -0.2019728 0.1663872 -0.15458854 0.5063592 -0.7752812 -0.027363904 -0.0014755006 0.6768988 -0.05945874 -0.021846479 -0.3226517 0.3194345
individual 0.025377043 -0.22047989 0.4181664 -0.36813858 0.0114628775 -0.55570066 0.06678166 -0.19156726 -0.022150692 -0.11475123 -0.31579804 0.2544994 0.3688404 0.20526536 -0.007105886 -0.29003644 0.18880711 0.36088392 -0.18959425 0.16989571 -0.1381748 0.51360506 -0.7738846 -0.035614673 0.0016714201 0.6740443 -0.05325104 -0.01822694 -0.32653004 0.3153914
terapia 0.012956537 -0.20335843 0.41501442 -0.34873638 0.009468726 -0.56079644 0.09340908 -0.2120774 -0.021028966 -0.113796465 -0.3332152 0.26781175 0.3529428 0.20561521 0.0067575155 -0.28885382 0.2149181 0.38810873 -0.21634486 0.17366251 -0.16460884 0.5171933 -0.77627194 -0.028536294 0.011561554 0.6903999 -0.05340866 -0.046698634 -0.31185025 0.30750614
momento -0.0025079623 -0.20413661 0.42048317 -0.36001793 0.023520838 -0.58167756 0.067773506 -0.2021815 -0.050661676 -0.10899669 -0.31701523 0.268624 0.37213075 0.18466656 -0.017872361 -0.29820246 0.20590022 0.40644723 -0.21023707 0.20305508 -0.16827266 0.5283317 -0.7987855 -0.015951863 -0.00714943 0.68463725 -0.087772235 -0.016121527 -0.3361225 0.29917285
paciente -0.0076615275 -0.22429062 0.45497423 -0.3861376 -0.0062705236 -0.5988145 0.08173939 -0.2242448 -0.025193036 -0.11250616 -0.343636 0.25232908 0.36264557 0.19461663 -0.0051405346 -0.2884476 0.19307494 0.41276821 -0.22618596 0.21086018 -0.15272984 0.53587043 -0.84301674 -0.009890141 0.0046743588 0.7247149 -0.08457028 -0.027328411 -0.32515106 0.31641188
fecha 0.026576854 -0.2186808 0.4354087 -0.38019213 -0.002720204 -0.58341485 0.07959448 -0.20147054 -0.04305621 -0.12047684 -0.33418497 0.26769045 0.3821895 0.20860457 0.004027273 -0.31274045 0.22242616 0.38519984 -0.20872355 0.20998318 -0.1455421 0.5434323 -0.82072407 -0.027663728 -0.008799842 0.7125658 -0.08522561 -0.032943398 -0.32661146 0.32788166
atiendan 0.018218556 -0.19139884 0.3929597 -0.32346258 0.015447841 -0.50781435 0.06914003 -0.18563265 -0.044010013 -0.098603494 -0.29173303 0.24973504 0.30964515 0.19301184 0.0021773977 -0.2540326 0.18995214 0.3386044 -0.17081381 0.15359394 -0.13088392 0.44477215 -0.71660155 -0.020773541 -0.007125087 0.6232169 -0.062497906 -0.030205712 -0.27268696 0.28494132
urgente 0.005352443 -0.20835923 0.4356202 -0.3555698 -0.001748204 -0.55657846 0.09109372 -0.19423217 -0.037049852 -0.11460327 -0.3093652 0.23974633 0.3514732 0.17371814 -0.010427709 -0.28099218 0.19550927 0.36277527 -0.20639639 0.16735542 -0.15236686 0.49028534 -0.78888685 -0.029163793 -0.0022736369 0.6920534 -0.072743125 -0.015066515 -0.3281915 0.30763236
pregunta 0.0057625324 -0.2199584 0.42003033 -0.35204592 -0.001425056 -0.5868 0.069190934 -0.20305227 -0.05038114 -0.1294441 -0.33938903 0.26870343 0.3630744 0.18825622 0.00074690947 -0.30516568 0.21141845 0.39733362 -0.21299246 0.18293972 -0.15871623 0.5158301 -0.7999728 -0.014035071 -0.00086282473 0.6905977 -0.06896381 -0.02279365 -0.30993283 0.30527583
comparativa 0.01987901 -0.19820371 0.39511415 -0.3291142 -0.012526617 -0.528565 0.07105442 -0.16767395 -0.043853052 -0.10277986 -0.28215078 0.22573654 0.32454032 0.1815097 -0.012137347 -0.26538146 0.1732339 0.3562318 -0.15789072 0.17859422 -0.13059108 0.44411272 -0.693233 -0.004265816 -0.006139164 0.60728174 -0.065910794 -0.013241059 -0.273928 0.2946223
disponibilidad 0.0022518067 -0.20313503 0.41543612 -0.35552147 0.008453307 -0.5417987 0.06160592 -0.207329 -0.034772344 -0.12483335 -0.3108508 0.23216288 0.33834317 0.17419085 -0.0065565365 -0.29268467 0.20080902 0.392554 -0.19797859 0.1951051 -0.15181212 0.48946118 -0.7755439 -0.030997414 0.015735762 0.6734747 -0.0836975 -0.02715862 -0.29013374 0.29859513
torax 0.022705551 -0.22742848 0.45198798 -0.37660682 -0.0040001557 -0.5848217 0.08203686 -0.20280375 -0.021122357 -0.103177585 -0.3337523 0.26416048 0.34504625 0.21032634 -0.018154955 -0.26160857 0.19148543 0.39515665 -0.1962727 0.19494511 -0.13067245 0.52887297 -0.81450915 -0.021017274 -0.004362962 0.70611674 -0.07662615 -0.02492039 -0.33256477 0.30263236
horas -0.008212782 -0.19762094 0.40912876 -0.3597691 0.0074681775 -0.5706545 0.08785946 -0.18675573 -0.03213849 -0.12681095 -0.32409248 0.23421602 0.35666025 0.17587271 -0.023468573 -0.29491472 0.18812147 0.38652152 -0.19217265 0.17590433 -0.15233237 0.49590707 -0.77660483 -0.02216883 0.0037186726 0.66449726 -0.06674855 -0.043822795 -0.294599 0.31345096
nesecito -0.0066767707 -0.2084006 0.41514337 -0.3488011 0.008394083 -0.5664288 0.07406494 -0.19514336 -0.021407252 -0.120574385 -0.3228538 0.2515862 0.32146204 0.17193541 -0.006698857 -0.27913 0.2059353 0.3730453 -0.20677397 0.16281554 -0.13328049 0.48994294 -0.75687826 -0.0054224897 -0.020689514 0.6668451 -0.07271051 -0.04089568 -0.32150796 0.31296593
colaborar -3.6812482e-05 -0.21046223 0.42130226 -0.33984947 0.02028451 -0.5330888 0.061946128 -0.19879024 -0.036661763 -0.10166741 -0.31665125 0.25119096 0.35106486 0.18725906 0.0042960444 -0.28650987 0.17862274 0.38592455 -0.17836703 0.18673956 -0.15889136 0.4942082 -0.75475466 -0.040601797 -0.00838712 0.6696764 -0.081508674 -0.025218332 -0.29810336 0.2947015
lateral -0.010228693 -0.21368293 0.5080284 -0.4223662 -0.0058315815 -0.6246467 0.090744935 -0.2436899 -0.050089452 -0.07873129 -0.40570417 0.26510242 0.3826441 0.20259532 0.017010504 -0.2572975 0.1492146 0.44313252 -0.17868114 0.22052047 -0.11847702 0.56408745 -0.90312266 -0.04645961 -0.015345571 0.78268737 -0.1148967 -0.036063433 -0.39693058 0.31202903
cedula 0.008493335 -0.19882977 0.39812684 -0.33377892 0.014075537 -0.530822 0.08469663 -0.17588273 -0.04211479 -0.103938036 -0.30747896 0.23923479 0.3384545 0.18044764 0.0026848535 -0.2979688 0.1915567 0.38344136 -0.21225947 0.19907454 -0.15940583 0.4900759 -0.7678719 -0.013594401 -0.014808027 0.64663255 -0.08227552 -0.0191864 -0.29060537 0.29072735
consultar 0.005579903 -0.22723089 0.4315129 -0.3737592 0.018628238 -0.5736387 0.092945285 -0.19576488 -0.026883721 -0.1303324 -0.31703737 0.26292527 0.3579733 0.18466553 0.0023250126 -0.3173196 0.19891432 0.39427012 -0.21216178 0.20368254 -0.15619464 0.5140093 -0.8221673 -0.010185743 0.0017413308 0.7018847 -0.060689878 -0.012865335 -0.3219842 0.30385533
autorizacion -0.00952446 -0.21748674 0.4202159 -0.35721263 0.013537976 -0.58897233 0.069425814 -0.22587451 -0.03889576 -0.115972325 -0.3382156 0.26552635 0.3584089 0.210035 -0.020180838 -0.2901574 0.19864029 0.38289613 -0.21523584 0.1986641 -0.171264 0.529265 -0.78272283 -0.007772254 -0.006901117 0.69018686 -0.06660767 -0.0127942115 -0.30556142 0.32028407
sede 0.011645014 -0.21618143 0.40175948 -0.33020768 0.00026192347 -0.54862094 0.060160942 -0.18952557 -0.023265004 -0.108240634 -0.33138114 0.26003796 0.36107308 0.19086002 0.0011604133 -0.30221722 0.1973248 0.38996047 -0.17968711 0.19897225 -0.16664888 0.49319452 -0.75289893 -0.030288307 -0.006350997 0.67226154 -0.081847176 -0.043062776 -0.32183257 0.29213268
presencial -0.01120468 -0.21175453 0.4269945 -0.34992486 0.0009828935 -0.5936403 0.07423073 -0.19983983 -0.029826943 -0.10954633 -0.34488937 0.25313592 0.34908217 0.21284676 -0.0135385245 -0.3176125 0.18969113 0.37955803 -0.22424981 0.18145637 -0.14399175 0.52372885 -0.8204894 -0.041524272 -0.0012151302 0.7077032 -0.057800382 -0.036312014 -0.3200391 0.3182746
llamar 0.0048789615 -0.21883722 0.43372515 -0.3452309 -0.004652684 -0.5745371 0.06020818 -0.20055686 -0.019683776 -0.11777275 -0.32141927 0.25550467 0.36440933 0.19368185 0.00087393454 -0.29643232 0.2201947 0.40220553 -0.19556344 0.20845445 -0.16552496 0.5148493 -0.8055128 -0.020091815 -0.0021296109 0.72245264 -0.06333303 -0.036293227 -0.32379785 0.32130468
senorita 0.003893373 -0.21146382 0.44717708 -0.352561 -0.011443261 -0.56711036 0.067648664 -0.22162963 -0.04416536 -0.11907541 -0.33963394 0.27348155 0.36813176 0.18190013 0.0030722015 -0.30253264 0.21236049 0.377673 -0.21837755 0.19936317 -0.16148919 0.5175703 -0.8051851 -0.027226508 -0.0050506154 0.7129551 -0.065321244 -0.036436938 -0.33441806 0.30425888
dicen 0.015665267 -0.20343168 0.4349722 -0.33931917 -0.005685411 -0.55956846 0.090684004 -0.21233432 -0.030773915 -0.12421629 -0.33016118 0.26691043 0.3441226 0.18754116 -0.014073635 -0.31277928 0.19882187 0.39875394 -0.21869205 0.20444128 -0.14282186 0.50321305 -0.78481346 -0.031124387 -0.0054956484 0.6999262 -0.08184847 -0.014524413 -0.33132967 0.31903055
examenes -0.0029806236 -0.22444704 0.435395 -0.35524064 0.004925694 -0.5789992 0.07564022 -0.2109772 -0.033237424 -0.12127848 -0.34044376 0.27620596 0.3456192 0.19060823 -0.0011249356 -0.2827136 0.20332082 0.39635944 -0.19010758 0.18370467 -0.15251756 0.51217103 -0.8159559 -0.008615447 0.014551605 0.7089315 -0.057142105 -0.040035564 -0.3366827 0.29610467
igualmente 0.0048228675 -0.19141175 0.41894156 -0.3374305 0.00010988887 -0.5351253 0.06734252 -0.19358264 -0.028933764 -0.120897815 -0.2995832 0.24479005 0.35413188 0.18379095 -0.007939627 -0.27552843 0.18968585 0.3690166 -0.18968235 0.1797735 -0.16010365 0.49801335 -0.77632993 -0.011992356 -0.0054056495 0.66613793 -0.062544875 -0.016579457 -0.3113118 0.3027681
requerer 0.026282685 -0.19756514 0.42077422 -0.35597458 0.019284643 -0.5659244 0.09045673 -0.19514032 -0.039304726 -0.11782574 -0.30254367 0.24261385 0.35619995 0.20316532 -0.02239084 -0.29286867 0.20093206 0.37151968 -0.20878789 0.16631104 -0.15985018 0.48280832 -0.7666995 -0.029016424 -0.00042116595 0.65689003 -0.08207955 -0.024530964 -0.291802 0.28922635
atienden 0.0034906524 -0.19836463 0.4093245 -0.3447653 0.021768037 -0.55271405 0.081334956 -0.20131226 -0.038627826 -0.1287416 -0.30541852 0.26103783 0.34591782 0.20297125 -0.021075321 -0.30175093 0.20112945 0.38211247 -0.19331329 0.18439841 -0.16061972 0.4838489 -0.776337 -0.0206234 -0.0073033604 0.6756237 -0.070815876 -0.041503586 -0.31674433 0.31673828
fisioterapia 0.022235557 -0.21584609 0.40256578 -0.3271725 -0.0084860595 -0.52946264 0.06319008 -0.18964358 -0.05126827 -0.12597588 -0.3005557 0.2367914 0.34602496 0.18825947 -0.0058291415 -0.27865282 0.19847298 0.37531805 -0.18245453 0.17949003 -0.13385177 0.4695677 -0.7518471 -0.035950214 0.005472634 0.6609976 -0.050654482 -0.022447554 -0.2810362 0.29918668
sirve 0.0057728547 -0.21549891 0.4111182 -0.36806446 0.019132685 -0.55351746 0.056379873 -0.20563391 -0.048535023 -0.10475595 -0.3132076 0.24634835 0.34332356 0.20788488 -0.019341215 -0.2966863 0.20027897 0.36741754 -0.20476797 0.18272462 -0.1521168 0.5035366 -0.7919596 -0.040349547 -0.016721938 0.6728705 -0.06672249 -0.042561114 -0.32195362 0.32292327
atender 0.016832268 -0.20808788 0.4304674 -0.34804547 0.004521635 -0.57915974 0.086926974 -0.21413524 -0.02140866 -0.12259291 -0.31059414 0.26703542 0.34553152 0.20696153 0.0064881532 -0.30285978 0.20402907 0.3984642 -0.1905802 0.18348674 -0.16326013 0.5169131 -0.7711155 -0.016794862 0.00821589 0.6740525 -0.066031426 -0.04202129 -0.3193999 0.31870803
atenotorgar 0.0008406864 -0.18137427 0.3590099 -0.30759114 0.0022618102 -0.47669423 0.07811828 -0.18257216 -0.019501131 -0.108889714 -0.2911123 0.19924466 0.2907154 0.15272447 -0.002487327 -0.25940537 0.15968162 0.31946516 -0.16792491 0.15411285 -0.13600782 0.41780472 -0.6595925 -0.012745055 0.0017383238 0.569174 -0.048272964 -0.03537154 -0.26703182 0.27258018
pendiente -0.00408897 -0.1957807 0.40657273 -0.32595134 0.018680107 -0.54226315 0.060332987 -0.18635838 -0.03676964 -0.12832645 -0.29664025 0.23042084 0.32625335 0.17558956 -0.004764111 -0.26410195 0.18739015 0.3538636 -0.19287856 0.16781116 -0.15257147 0.46944666 -0.74269205 -0.031508785 -0.0072704945 0.64449346 -0.0740865 -0.032515857 -0.29298908 0.2928666
radiografias 0.007827104 -0.20878933 0.42038292 -0.36039105 0.017453283 -0.57416654 0.08112261 -0.2206805 -0.023753619 -0.1279769 -0.3191927 0.24344125 0.35243934 0.21231769 -0.015731089 -0.30859977 0.20552501 0.40493083 -0.21226017 0.16842578 -0.13797334 0.49388433 -0.7708869 -0.008811261 0.011292559 0.68879473 -0.08657643 -0.018258985 -0.29549274 0.3125423
deseo 0.025961434 -0.20577596 0.3834286 -0.31729522 0.009161746 -0.5257498 0.08133857 -0.19146682 -0.036999088 -0.117022395 -0.2809564 0.21872629 0.31987473 0.16044323 -0.009407571 -0.27817807 0.19544345 0.3462704 -0.19202597 0.15476508 -0.13743827 0.44842222 -0.7340533 -0.0066658426 0.013221028 0.64432824 -0.08018017 -0.007892747 -0.29447573 0.29409754
examen -0.0036171058 -0.19793323 0.42308795 -0.32750028 0.021491773 -0.55765855 0.08504847 -0.19795649 -0.03174806 -0.11177847 -0.32287088 0.24632655 0.35259697 0.20380554 -0.016184073 -0.28095594 0.18972506 0.3867193 -0.19126096 0.185491 -0.13239996 0.49571323 -0.7446002 -0.020191163 -0.018346298 0.6592409 -0.077391654 -0.0359932 -0.2879863 0.29241213
prioritaria 0.021626977 -0.20060994 0.4091369 -0.33064887 -0.0059085274 -0.5364329 0.058930587 -0.20381954 -0.021892032 -0.117282376 -0.31688544 0.25003716 0.3360231 0.16885942 -0.021301443 -0.28181076 0.173527 0.35915124 -0.2060904 0.15669131 -0.13982221 0.48136604 -0.7199329 -0.0039959666 -0.007292367 0.6447962 -0.064087845 -0.03664108 -0.2842336 0.29410398
cirugia 0.019523669 -0.20383236 0.4277735 -0.33452126 0.019698063 -0.56298745 0.07501642 -0.17982881 -0.05018799 -0.11145385 -0.30422488 0.2570075 0.35399038 0.16937728 -0.012559619 -0.2688672 0.19615762 0.3868819 -0.18687068 0.185982 -0.15873125 0.49098602 -0.76359993 -0.033840958 -0.0045236736 0.68058336 -0.07094362 -0.034066 -0.31552276 0.29798374
interna 0.0008308168 -0.18600991 0.4013198 -0.33454716 0.00040554465 -0.541203 0.060556795 -0.18198663 -0.041149534 -0.10042226 -0.30868363 0.25395414 0.33629814 0.16669285 -0.016397549 -0.25727433 0.17406388 0.3460903 -0.19549692 0.17286292 -0.15440474 0.4762743 -0.7395258 -0.021481192 0.0087122815 0.6264887 -0.074466825 -0.021277875 -0.29449725 0.29746896
asignar 0.000480584 -0.18376781 0.38793305 -0.34891015 0.008518643 -0.5288597 0.06387055 -0.18304627 -0.018012604 -0.0935283 -0.31774423 0.24582124 0.33081818 0.1879232 -0.0032454773 -0.27949768 0.18631214 0.3601973 -0.17904791 0.16329987 -0.15750323 0.4681056 -0.7232595 -0.029709913 -0.0056954883 0.6411184 -0.06063431 -0.038325775 -0.2976878 0.29839957
medicamentos 0.024486411 -0.24618828 0.45192432 -0.3802099 0.025643554 -0.6166309 0.0837432 -0.21737416 -0.043728247 -0.11928767 -0.36353913 0.26830417 0.3824438 0.22154059 -0.006432081 -0.32958263 0.22759739 0.40621582 -0.20493458 0.2062184 -0.1476084 0.55927455 -0.8731347 -0.034392837 -0.022466827 0.74146736 -0.06899882 -0.018487634 -0.36151302 0.32670778
lejos -0.002225585 -0.20033972 0.42004588 -0.36172247 -0.010582028 -0.5482841 0.069038555 -0.20976827 -0.03028381 -0.12797207 -0.29688603 0.23448196 0.3470419 0.2015506 0.007691248 -0.29954877 0.20493908 0.36707014 -0.1825397 0.17525233 -0.13360089 0.5046412 -0.7771168 -0.007026315 -0.0036536094 0.66996944 -0.08395739 -0.034786966 -0.31931284 0.3024303
despues -0.0032527372 -0.21841365 0.41584912 -0.3598776 0.0037237685 -0.5531014 0.0580718 -0.1903918 -0.05012853 -0.112434745 -0.32088745 0.24200007 0.33687896 0.1934516 -0.02273965 -0.28814012 0.2088368 0.38790426 -0.18712409 0.19105841 -0.156711 0.48937964 -0.7807448 -0.034059223 -0.004133099 0.6592812 -0.059211735 -0.011901591 -0.29429957 0.29186937
ortopedia -0.004007241 -0.23024696 0.43964258 -0.37304893 -0.008677688 -0.5811146 0.057211213 -0.20804968 -0.02984896 -0.13751724 -0.33665356 0.2593061 0.3565502 0.21005692 -0.01744933 -0.309728 0.21539879 0.39142781 -0.2014882 0.18952577 -0.16505706 0.51529044 -0.8220172 -0.035304096 -0.014889435 0.68588847 -0.086712725 -0.037809968 -0.3370968 0.3230518
entiendo 0.002903842 -0.2146624 0.42104375 -0.36701614 -0.00484794 -0.56578016 0.074504316 -0.22113188 -0.043487918 -0.13244009 -0.34083274 0.25809586 0.34905994 0.18678024 -0.0118333325 -0.31483066 0.20991938 0.4103201 -0.20397446 0.18590309 -0.15896727 0.51510197 -0.8238137 -0.037116226 -0.0018385781 0.7119337 -0.08497008 -0.016204733 -0.3129195 0.30558333
tratando 0.020724684 -0.2074566 0.40812582 -0.34942666 -0.001997813 -0.53507763 0.05908006 -0.20301749 -0.037026748 -0.11826321 -0.32557574 0.24010585 0.35065705 0.17251155 0.0029267552 -0.29079056 0.19579653 0.37327972 -0.19901502 0.16401283 -0.15410748 0.48384288 -0.76875734 -0.021176487 0.015106287 0.65423334 -0.057063308 -0.026484836 -0.302439 0.29248455
mejor 0.012047764 -0.21088879 0.40330917 -0.35518223 -0.0050280527 -0.53988284 0.0725787 -0.19674534 -0.044523265 -0.101670995 -0.32032055 0.23913978 0.3298296 0.19812468 0.005594905 -0.27948788 0.17570083 0.35263792 -0.20322378 0.17873563 -0.13749515 0.49817854 -0.75037766 -0.0325177 0.011878499 0.64702433 -0.062276796 -0.036601853 -0.31028458 0.30008078
nadie 0.0014141811 -0.17729166 0.3929257 -0.34454787 0.0053479304 -0.5296365 0.08448269 -0.1967074 -0.030817542 -0.1258145 -0.30699828 0.24610795 0.33194262 0.1827338 -0.009647715 -0.2670046 0.17741753 0.36310363 -0.17464256 0.16906898 -0.12448702 0.45512918 -0.7201941 -0.040236436 -0.0174243 0.6307535 -0.051087145 -0.037478298 -0.29818302 0.29543543
confirmar 0.00211911 -0.22123937 0.42872354 -0.3767917 0.013602305 -0.5863497 0.07573988 -0.20453234 -0.050608747 -0.14131726 -0.33942363 0.2763585 0.38393027 0.1925501 -0.019898392 -0.29497564 0.23149714 0.3949762 -0.22083005 0.18964095 -0.1639197 0.54862726 -0.8252456 -0.018742263 0.0059661004 0.7123197 -0.0841589 -0.015475836 -0.32710776 0.31313115
pagina 0.0089173755 -0.2149107 0.45450017 -0.38123396 0.010608535 -0.59415674 0.08754358 -0.21428327 -0.030374946 -0.13252811 -0.3382699 0.25218344 0.36781153 0.18969744 -0.01854482 -0.3210033 0.21091424 0.40330446 -0.22430782 0.21693896 -0.15835954 0.5514034 -0.842625 -0.014686622 0.0011207155 0.7276439 -0.088997 -0.032341078 -0.33181658 0.3384273
queda -0.0051121586 -0.19853495 0.41856793 -0.34528187 0.0116172265 -0.5536149 0.06967003 -0.18650275 -0.038277928 -0.11397754 -0.32466394 0.23897782 0.34255943 0.17947048 -0.019203926 -0.2749359 0.1886209 0.3572795 -0.18087603 0.18709975 -0.13869122 0.4944434 -0.7785381 -0.028422806 -0.019253302 0.6569941 -0.07494736 -0.03649001 -0.31664702 0.30532178
tiroides -0.012658566 -0.19578551 0.40687218 -0.33476725 -0.0032049688 -0.5342877 0.083425775 -0.1805729 -0.045900483 -0.106734216 -0.31824985 0.23492421 0.3279209 0.19597419 -0.0031936679 -0.28047428 0.17705478 0.35436106 -0.20826031 0.17281368 -0.16057228 0.4899086 -0.77262133 -0.02594992 0.0019027464 0.6526219 -0.08358921 -0.011907801 -0.30324027 0.29528558
agradezco 0.017545737 -0.21052752 0.38963667 -0.32755992 0.016032165 -0.5572369 0.08717075 -0.19727738 -0.01942541 -0.116996735 -0.2944186 0.23893622 0.3464351 0.19387364 -0.009846625 -0.29561427 0.19245967 0.3555849 -0.20701882 0.16345298 -0.14403692 0.4753301 -0.7372244 -0.012587785 0.0070227957 0.6523018 -0.08813393 -0.010468704 -0.29036763 0.2915531
parte 0.005287456 -0.203321 0.41054624 -0.34073487 -0.013912636 -0.5674593 0.06759155 -0.18057959 -0.041209783 -0.118384756 -0.30556512 0.256342 0.3539432 0.20339787 -0.012458944 -0.29886925 0.19379978 0.36437544 -0.19332364 0.1762039 -0.13516162 0.48017976 -0.7759048 -0.035873365 -0.010046165 0.66004735 -0.06256206 -0.040207926 -0.3135669 0.30983838
cercana -0.006968374 -0.20772895 0.41970465 -0.36632955 0.012321215 -0.5528923 0.089922525 -0.21213312 -0.026210338 -0.11304676 -0.30653068 0.23666106 0.3542209 0.19094904 -0.01683425 -0.28229707 0.20954208 0.37646645 -0.21043222 0.18794897 -0.14054886 0.49475646 -0.7783182 -0.020974956 -0.00969118 0.65551275 -0.06687131 -0.018863939 -0.31048462 0.2992298
covid 0.020408727 -0.20089093 0.41277844 -0.3640292 -0.010628326 -0.59393775 0.08834903 -0.1864598 -0.048485912 -0.12025715 -0.3097922 0.2722406 0.35740918 0.21220203 -0.015082079 -0.31159243 0.2003052 0.38762048 -0.22641538 0.18036242 -0.14729737 0.5050808 -0.79867476 -0.028601868 0.0037099447 0.68970376 -0.07843402 -0.012517485 -0.32487467 0.3024798
rapido 0.010362736 -0.1971143 0.37490922 -0.34133923 0.017434513 -0.50803095 0.071480826 -0.18194592 -0.0396227 -0.098576866 -0.31349993 0.24956268 0.32025725 0.17721717 -0.00031119777 -0.28219962 0.17094754 0.36394805 -0.17654233 0.17286803 -0.13729943 0.45613936 -0.73471797 -0.01931788 0.0019366615 0.6417598 -0.08085016 -0.03719596 -0.2760558 0.27086395
podido -0.0067717903 -0.20790605 0.40501535 -0.3390718 0.013306129 -0.5479791 0.06339953 -0.18038759 -0.023191841 -0.12300344 -0.31386712 0.23996668 0.3379921 0.18423294 -0.002334714 -0.27596572 0.17386077 0.36262107 -0.20903079 0.17635228 -0.13751645 0.49148163 -0.7445462 -0.031316698 -0.01992869 0.66247356 -0.056377094 -0.028092353 -0.29278794 0.29760417
intentando 0.023957662 -0.21488456 0.41908148 -0.3508793 -0.008139348 -0.5617439 0.06967289 -0.20825458 -0.032054827 -0.113585114 -0.33046988 0.25548542 0.35977072 0.20432942 -0.012857644 -0.28034252 0.18960175 0.3708787 -0.1900257 0.19487457 -0.16679995 0.4928341 -0.7773796 -0.01909661 -0.01865423 0.66540045 -0.08173305 -0.017960634 -0.31621933 0.29836968
articular_hombro 0.01729173 -0.17997971 0.38491806 -0.3329044 0.020922814 -0.5339849 0.06123804 -0.2055934 -0.013695259 -0.13189818 -0.2894231 0.25108927 0.31868362 0.17113908 -0.018997142 -0.26467764 0.17975333 0.34742978 -0.17344569 0.17589651 -0.15578592 0.45430338 -0.74663305 -0.020970762 -0.0049279234 0.63941646 -0.053653285 -0.030129293 -0.30173355 0.2986943
comunicar 0.021311788 -0.2055084 0.3668895 -0.3274289 0.012783088 -0.5199075 0.07959304 -0.19121927 -0.031862002 -0.119551435 -0.29965317 0.22061607 0.32840228 0.16394772 -0.018831229 -0.2672518 0.18692915 0.34798327 -0.17570013 0.1541224 -0.15081353 0.46688288 -0.7174033 -0.030885773 0.012312083 0.6270576 -0.05208128 -0.037059966 -0.29607525 0.27814108
informacion 0.012635909 -0.19755661 0.43016458 -0.36043632 -0.0052575315 -0.57800114 0.060167924 -0.1992757 -0.028539732 -0.11157193 -0.33098492 0.25031236 0.36484426 0.19965737 0.007385359 -0.29912457 0.20069593 0.40679577 -0.21624058 0.19766897 -0.1504995 0.51031375 -0.79963917 -0.024791729 0.008536575 0.7105946 -0.06670981 -0.035251096 -0.30626735 0.29854095
teleconsultar -0.010902897 -0.22565183 0.41756877 -0.33682385 0.023287129 -0.54475415 0.08385054 -0.19879168 -0.041081965 -0.101725414 -0.3168162 0.23834558 0.36580098 0.16808274 -0.015734514 -0.2817695 0.1963797 0.36946085 -0.21518856 0.18837507 -0.1626111 0.5118459 -0.771015 -0.0029157961 0.010726276 0.67763805 -0.07007264 -0.040961057 -0.3125519 0.30003908
programar -0.0024495663 -0.192204 0.38024607 -0.33597773 0.02314508 -0.53595006 0.08794052 -0.1735128 -0.04555499 -0.102548875 -0.31610373 0.24287705 0.319646 0.1931393 -0.0062895054 -0.27855456 0.2022842 0.37300885 -0.19535683 0.17357488 -0.13093135 0.48396707 -0.73783314 -0.03589635 -0.013374171 0.6545253 -0.071376644 -0.040206075 -0.29128817 0.275198
caderas 0.0017870346 -0.18411577 0.39506942 -0.31643456 0.012676068 -0.49394375 0.050073385 -0.18459491 -0.033694815 -0.099037595 -0.27521136 0.23283552 0.32963118 0.17687935 0.0048275804 -0.25954834 0.16393861 0.33766755 -0.18127677 0.1637833 -0.14440161 0.44501746 -0.6878727 -0.023583565 -0.008622692 0.6098356 -0.06795164 -0.022369968 -0.29242042 0.2870934
transvaginal -0.010752892 -0.19662367 0.38956103 -0.33730465 0.017318679 -0.5299785 0.08507959 -0.1795324 -0.0256856 -0.1367266 -0.32585934 0.24027832 0.32849085 0.18219912 0.0033074857 -0.2946566 0.18821529 0.36791927 -0.1889188 0.19903873 -0.16891497 0.47088283 -0.78224033 -0.022016926 0.0048026354 0.6552366 -0.08321651 -0.010623032 -0.31600988 0.30579972
decir 0.025558077 -0.24069163 0.44585726 -0.35081568 0.028255198 -0.5832335 0.078366436 -0.21868557 -0.04774707 -0.13211381 -0.33986872 0.25270668 0.38025764 0.18745805 -0.0120377885 -0.3047317 0.19360049 0.40493676 -0.2127832 0.1937175 -0.1679737 0.5070051 -0.79960674 -0.028361784 -0.016551718 0.7117908 -0.074304335 -0.014225983 -0.3449051 0.2992005
obstetrica -0.009870359 -0.19952998 0.39289647 -0.31320786 0.025222974 -0.52100337 0.07696845 -0.18634762 -0.014986619 -0.12717918 -0.305215 0.2393634 0.29708835 0.16139309 -0.014526517 -0.2540048 0.18982577 0.36086476 -0.17151435 0.18799652 -0.13146949 0.45828396 -0.72123224 -0.018288933 0.010086829 0.5975446 -0.07961366 -0.010074304 -0.28229877 0.26417154
dijo 0.025713788 -0.1997366 0.43134642 -0.3548137 -0.011120495 -0.58103544 0.0717488 -0.19325423 -0.043638557 -0.13499352 -0.3408131 0.27318472 0.33742228 0.19881496 -0.002667357 -0.3016993 0.2031416 0.37225464 -0.18737896 0.18295838 -0.15279528 0.49420232 -0.7709163 -0.037355263 0.0085502295 0.69717157 -0.07273693 -0.040191613 -0.3220776 0.3131557
medicas 0.008428482 -0.20392124 0.3915104 -0.33619425 0.00077734503 -0.52224666 0.062238004 -0.18543626 -0.036094323 -0.11972661 -0.30885434 0.23541965 0.3306 0.17511109 -0.0062151435 -0.26261732 0.18661448 0.3746119 -0.17385319 0.17040972 -0.1619709 0.46868277 -0.7465258 -0.022360649 0.0060416036 0.6318222 -0.06291589 -0.016718514 -0.30032435 0.28488225
disculpa 0.01382554 -0.18986464 0.42410827 -0.367604 -0.004827323 -0.568116 0.063480146 -0.19124892 -0.04993041 -0.10959529 -0.31611866 0.23399606 0.33407116 0.19520818 -0.017795986 -0.27105972 0.1796987 0.36295477 -0.20810203 0.19087392 -0.14560038 0.49308622 -0.77922326 -0.012788455 -0.0071169636 0.6583373 -0.067658335 -0.015989108 -0.3256556 0.2988287
terapias -0.004954633 -0.18351804 0.4082454 -0.3552341 -0.012371342 -0.5595579 0.089047275 -0.18214001 -0.022279542 -0.12503599 -0.32636657 0.26059133 0.33700588 0.1911197 0.0074851555 -0.29395562 0.19692875 0.3539939 -0.17861933 0.18016084 -0.13016364 0.4946963 -0.7565048 -0.018859923 -0.011175975 0.6442019 -0.054200467 -0.028230133 -0.30195966 0.3003548
reprogramar -0.00686833 -0.2109135 0.4080226 -0.34582907 0.020804795 -0.53625345 0.064662516 -0.20429906 -0.050998006 -0.13231598 -0.3098523 0.24802129 0.34975958 0.17763388 -0.012595867 -0.2672214 0.19523595 0.38358557 -0.2075495 0.17592448 -0.15522407 0.47733632 -0.7644708 -0.040132843 -0.0031921237 0.67242986 -0.08448012 -0.0341519 -0.31746927 0.3042439
pesimo 0.014135091 -0.19008256 0.3942422 -0.3315017 0.020955386 -0.49691123 0.0736017 -0.1787687 -0.042710345 -0.09509356 -0.3009905 0.23954086 0.32029727 0.17519158 -0.022006169 -0.27319726 0.17279652 0.35816747 -0.17615888 0.15844108 -0.13687675 0.4575238 -0.7111319 -0.0374007 0.0068747476 0.60410476 -0.05022842 -0.035403572 -0.26742342 0.282351
contestan 9.7846416e-05 -0.20867947 0.41017142 -0.3315335 -0.0038451238 -0.55723876 0.06633722 -0.17996998 -0.027756417 -0.10417551 -0.29388654 0.2567924 0.3290296 0.19630711 -0.024537776 -0.27493048 0.19610693 0.35427886 -0.19902615 0.16341515 -0.14995259 0.49647462 -0.7654074 -0.018978994 0.008939506 0.6666345 -0.06056603 -0.024855072 -0.2922971 0.31064802
centenario -0.0066862865 -0.2037693 0.44828537 -0.37825978 0.0016705713 -0.5705525 0.09340518 -0.21241713 -0.025721243 -0.1400253 -0.31916195 0.25605965 0.35494852 0.21621455 -0.02181833 -0.31661808 0.20754504 0.38567153 -0.21371837 0.17413524 -0.15051629 0.5013838 -0.79732627 -0.010029649 -0.008869251 0.7042497 -0.08907652 -0.016458243 -0.31655034 0.33005822
atendio 0.0045317784 -0.1892377 0.41594878 -0.32420707 0.007997639 -0.5572421 0.085659534 -0.19552502 -0.041485444 -0.10656756 -0.29470125 0.25541252 0.34545234 0.19790213 0.0067840996 -0.29580626 0.1911963 0.36154968 -0.18500572 0.19185035 -0.16211271 0.47466236 -0.75432616 -0.018412637 0.0071451054 0.6697455 -0.0831521 -0.023034105 -0.31003493 0.2795547
gustaria -0.0054289233 -0.21074483 0.38497433 -0.32287812 0.0051582092 -0.53009087 0.07507875 -0.1973518 -0.040234346 -0.12700766 -0.28990275 0.24712172 0.32064757 0.16331404 -0.020885903 -0.26417503 0.17970882 0.36165318 -0.19536693 0.15699473 -0.13776729 0.4752408 -0.71553963 -0.023046374 0.012857904 0.6306083 -0.06985631 -0.020296559 -0.28684506 0.29451036
telefono -0.011703938 -0.20902295 0.4098371 -0.35075605 0.018588774 -0.5657637 0.08191613 -0.20889229 -0.020691307 -0.114304245 -0.31860155 0.2376244 0.33048436 0.18314299 -0.013507266 -0.28590366 0.18153925 0.38536665 -0.1899719 0.17373188 -0.15590844 0.48840103 -0.78021103 -0.013934169 0.013539672 0.66957724 -0.08718284 -0.018386763 -0.29855436 0.31110722
horario 0.01009054 -0.19184305 0.4136334 -0.35712355 0.02260329 -0.5532734 0.07059722 -0.2106359 -0.023948265 -0.12537345 -0.2985406 0.24751006 0.3403876 0.1751957 -0.025165053 -0.27709875 0.18316148 0.37590888 -0.19616425 0.19015922 -0.13080674 0.48457795 -0.7680499 -0.025895067 -0.017783089 0.6747322 -0.061502494 -0.04319533 -0.31084004 0.31319582
ultima 0.009857798 -0.21296285 0.4319704 -0.34666997 -0.011102028 -0.58804417 0.0853923 -0.18951516 -0.022620717 -0.13634944 -0.3281703 0.25946552 0.3682439 0.18824117 -0.007943733 -0.29684687 0.20346399 0.39261854 -0.21034466 0.18853742 -0.14450687 0.5143014 -0.79798627 -0.031247698 0.014451841 0.69264656 -0.059582822 -0.047137097 -0.30995336 0.29966643
comunico 0.013917431 -0.22704235 0.43140927 -0.35216352 -0.002368758 -0.58394086 0.07896247 -0.20475116 -0.021761551 -0.1431051 -0.31325373 0.26570293 0.36882594 0.1949502 -0.020449065 -0.29649824 0.21483167 0.40702027 -0.19596665 0.20747139 -0.16541025 0.5194771 -0.8085649 -0.03648707 0.012377897 0.68731815 -0.076322064 -0.032271553 -0.31215766 0.30165923
asignacion 0.010770433 -0.18512622 0.36734128 -0.32403418 -0.0018194104 -0.47746232 0.056136385 -0.17428625 -0.04835037 -0.10043333 -0.286413 0.22459893 0.2896922 0.18497087 0.0006029793 -0.25695765 0.17589961 0.32087722 -0.17880043 0.16642329 -0.12907018 0.44877654 -0.67071134 -0.009749559 -0.012292218 0.5899235 -0.054013494 -0.035668913 -0.27538073 0.25295132
famisanar -0.0053522466 -0.2181874 0.42499238 -0.35172248 0.022829782 -0.5600176 0.06669193 -0.18153474 -0.04101335 -0.11625417 -0.3261742 0.24369025 0.3426544 0.17505002 -0.0052616247 -0.28726342 0.21136297 0.37849927 -0.20278336 0.19765304 -0.14836182 0.5157958 -0.78446275 -0.0076886634 -0.017084744 0.69485444 -0.060929593 -0.019689627 -0.30738595 0.2992901
nefrologia -0.008770207 -0.20144466 0.3822343 -0.3248647 0.022727633 -0.52795917 0.07598758 -0.16931471 -0.017154215 -0.11863575 -0.2795244 0.24301973 0.32427144 0.18837865 -0.01912516 -0.25990027 0.16288878 0.35785353 -0.18963592 0.15915765 -0.14856784 0.4735672 -0.72606736 -0.0076044463 -0.018567042 0.61929303 -0.05997272 -0.012349309 -0.30855504 0.30329677
oftalmologia -0.008137382 -0.21116766 0.38381296 -0.33097678 -0.0004140639 -0.5452368 0.08022407 -0.1909412 -0.023447389 -0.097758435 -0.2950139 0.25287223 0.31670767 0.17165771 -0.024547888 -0.26852334 0.18647577 0.35091725 -0.17178275 0.17874722 -0.13498317 0.4717511 -0.74163294 -0.011513489 -0.0034377691 0.63514894 -0.071733296 -0.041643474 -0.30218878 0.2896034
porfa 0.015772078 -0.21002051 0.4153787 -0.3426625 0.0033469244 -0.56956846 0.087014705 -0.19852898 -0.022828016 -0.13327977 -0.32967606 0.23885058 0.33977503 0.1812889 -0.008573632 -0.2922837 0.18094558 0.3651886 -0.19850183 0.17049944 -0.1459234 0.48686758 -0.7821665 -0.014259326 -0.01747417 0.675352 -0.07487204 -0.037563466 -0.31946534 0.29752696
radiologia -0.0011404428 -0.17204256 0.38154295 -0.31797597 6.2889434e-05 -0.5180714 0.07465883 -0.18606845 -0.042567477 -0.09266769 -0.30318657 0.2435329 0.330002 0.16381975 -0.019057553 -0.24664241 0.19730878 0.3615617 -0.1939988 0.15569541 -0.14516142 0.45849878 -0.7147893 -0.012621081 -0.0055345297 0.6052925 -0.059924837 -0.009859453 -0.26998663 0.26906997
transductor -0.004906201 -0.19687851 0.4370081 -0.3711055 0.016828237 -0.59021115 0.09132675 -0.19880697 -0.05405728 -0.1368006 -0.33260396 0.25860184 0.34818685 0.20417753 -0.019121353 -0.3107301 0.18986164 0.4049906 -0.21259823 0.20978501 -0.16663562 0.52766824 -0.7991927 -0.014834059 -0.010221768 0.714797 -0.08786173 -0.04895059 -0.3188253 0.299641
sicologia 0.015431333 -0.21009146 0.4223117 -0.365135 -0.004612266 -0.56573206 0.06546153 -0.20578472 -0.045395203 -0.1203861 -0.33496612 0.2406159 0.3525193 0.17344417 -0.019433985 -0.30564225 0.20638195 0.37442902 -0.19583608 0.20047823 -0.13261323 0.4977729 -0.76130134 -0.02783808 -0.0029623723 0.67018676 -0.07451576 -0.014868561 -0.3237325 0.30702218
prueba 0.025634548 -0.23184761 0.43914777 -0.35375914 -0.009576803 -0.57919145 0.074359834 -0.20378375 -0.043269526 -0.13739014 -0.32528758 0.25063542 0.38451025 0.19938153 -0.018206658 -0.30166364 0.21281251 0.3861358 -0.23353653 0.20173681 -0.14909886 0.5369655 -0.82724595 -0.017665794 0.0034005644 0.7192065 -0.06686363 -0.026855364 -0.32981923 0.3287755
igual 0.0060910676 -0.22952215 0.4495676 -0.35707536 -0.0024022865 -0.58864725 0.07939703 -0.19053896 -0.0221523 -0.13392387 -0.31179067 0.2707554 0.37934843 0.18270995 0.0024716412 -0.30590832 0.19888115 0.3859406 -0.19971122 0.20311005 -0.15764733 0.5103462 -0.8142418 -0.03362438 0.011517511 0.6870518 -0.08710441 -0.011038731 -0.30613342 0.31587178
urgencia 0.022957293 -0.19809753 0.39293674 -0.33147612 0.0029537962 -0.5285113 0.073327124 -0.16909295 -0.021041522 -0.11332786 -0.29992148 0.22882654 0.30772224 0.15851726 -0.01433269 -0.26929817 0.16951577 0.34748617 -0.1902657 0.15122592 -0.13040957 0.4589785 -0.7172374 -0.009484144 0.0077450722 0.63852245 -0.07163099 -0.013656879 -0.28663063 0.26604342
urinarias 0.010584899 -0.18887793 0.37950948 -0.3349501 0.018872736 -0.5008837 0.07685787 -0.16938345 -0.02764043 -0.114099264 -0.29971182 0.2265793 0.3051369 0.16584906 0.0060046446 -0.2800957 0.19317548 0.35776237 -0.16982335 0.17844386 -0.15404667 0.45980334 -0.72659695 -0.033932548 -0.009761295 0.6110204 -0.07146912 -0.008823827 -0.29498577 0.29310954
seguire 0.02517457 -0.19100067 0.38376918 -0.33290705 0.0045965365 -0.5457798 0.0846549 -0.18059637 -0.024358395 -0.10043 -0.31952447 0.23227932 0.32987428 0.189061 -0.0032049068 -0.27565208 0.1841023 0.3784796 -0.17832428 0.19307423 -0.15395421 0.46560684 -0.7476266 -0.02198307 -0.008736798 0.65440387 -0.08040056 -0.038339738 -0.28343475 0.295705
contesten 0.0049878913 -0.18105406 0.3837283 -0.33882684 0.017209828 -0.52066326 0.056513976 -0.19456342 -0.032963064 -0.11548648 -0.28726918 0.23693177 0.32530266 0.18786529 -0.021372667 -0.2765079 0.18874234 0.35918722 -0.17171477 0.17946792 -0.13413855 0.4748862 -0.7345191 -0.017089084 -0.008810885 0.6218261 -0.05502056 -0.03863348 -0.28945968 0.26629114
seguimiento 0.028963264 -0.23877122 0.4539153 -0.39796093 -0.0010346337 -0.61645824 0.09211638 -0.20588721 -0.05699954 -0.12015481 -0.34927535 0.29114854 0.39608073 0.19916745 -0.025905367 -0.3029217 0.19924729 0.40025792 -0.24420357 0.21511814 -0.15381362 0.53338677 -0.82605565 -0.029769113 0.0048552225 0.7394938 -0.06276352 -0.042287994 -0.32896498 0.34638742
minutos 0.008962716 -0.17970736 0.38532764 -0.3113235 0.017989548 -0.53350395 0.071429886 -0.17534646 -0.030239338 -0.10309828 -0.28602982 0.24618462 0.3320734 0.16192196 -0.017699037 -0.28022698 0.1903896 0.36158788 -0.19217959 0.1664378 -0.1348018 0.47476384 -0.70183563 -0.01927946 -0.0074254237 0.63888437 -0.05240017 -0.010746139 -0.2719855 0.2936943
quirigua 0.0005450321 -0.20441924 0.4283633 -0.33943284 -0.002311675 -0.56691253 0.083369754 -0.19184418 -0.046881903 -0.12032889 -0.32337898 0.26260027 0.35927773 0.1758099 -0.020071616 -0.29110366 0.21065953 0.3626183 -0.19602804 0.18646654 -0.1439076 0.51078653 -0.79584074 -0.029977558 -0.017580524 0.69593894 -0.066683024 -0.03278549 -0.31642058 0.31266993
contestar 0.01205268 -0.19177482 0.38623682 -0.2985482 0.0032875761 -0.51040596 0.079473846 -0.1643804 -0.030131936 -0.09986684 -0.28796068 0.24117753 0.3086283 0.18355176 -0.006182938 -0.24929324 0.18844613 0.3332793 -0.17674161 0.14847589 -0.14235534 0.43409806 -0.68181765 -0.02607904 -0.0042096633 0.6021576 -0.07921534 -0.01993468 -0.27363813 0.28759015
acuerdo -0.008107872 -0.17242286 0.36409545 -0.300856 0.016267722 -0.4807453 0.059545144 -0.16005528 -0.03851606 -0.109955326 -0.2803465 0.21885161 0.31772715 0.15754272 -0.009327748 -0.2683008 0.17658517 0.3299278 -0.19184403 0.15190536 -0.11779353 0.44334975 -0.6908385 -0.018358162 -0.00051086943 0.6138209 -0.07115091 -0.010471911 -0.28548 0.27500644
virtual 0.005602456 -0.23061496 0.44043714 -0.3693832 0.023590917 -0.5761688 0.06598152 -0.19091417 -0.036967803 -0.13780592 -0.33063227 0.26772887 0.3652318 0.21044983 -0.0026500893 -0.29465824 0.1863876 0.39743063 -0.2132276 0.19698007 -0.16080448 0.5319897 -0.8140325 -0.003356779 -0.015386229 0.7114523 -0.054189518 -0.035864525 -0.3434124 0.3362549
llamaron 0.022155434 -0.26079264 0.49137086 -0.39057666 0.020524656 -0.6331122 0.06966606 -0.21073115 -0.056185666 -0.14124808 -0.38304648 0.29813588 0.39304727 0.23625694 -0.0109097315 -0.3356949 0.24538891 0.41878223 -0.22026119 0.21939181 -0.16307634 0.5565413 -0.88273656 -0.025980476 -0.010840616 0.77303123 -0.06727487 -0.047520015 -0.3617191 0.34280366
luego -0.005492249 -0.24047303 0.43665665 -0.38492817 -0.009170668 -0.6199569 0.08112937 -0.21627702 -0.04744668 -0.13528568 -0.34923267 0.27171144 0.37829068 0.20906477 -0.028853368 -0.3215161 0.22386076 0.40903065 -0.23184781 0.19700032 -0.15492186 0.53257143 -0.8274629 -0.023764873 0.010306219 0.7169919 -0.06012531 -0.038113218 -0.32741365 0.32156357
colaboracion 0.014243244 -0.19911812 0.386761 -0.3502102 -0.004861402 -0.54314184 0.081004225 -0.18309219 -0.031152483 -0.11424027 -0.32339236 0.24367225 0.34600997 0.17260946 -0.023604756 -0.27881724 0.20086998 0.36413795 -0.18534951 0.16545048 -0.15484327 0.48778203 -0.75384885 -0.034839306 0.012393679 0.6609232 -0.085809134 -0.02437789 -0.29840454 0.2944301
necesita 0.0074831075 -0.20336466 0.38663808 -0.31136477 -0.0039137066 -0.5322135 0.056664873 -0.17673668 -0.02500943 -0.12125485 -0.29374564 0.22233647 0.33703458 0.19061118 0.0039813602 -0.2816582 0.17805018 0.33997717 -0.20226388 0.15908648 -0.13137278 0.46404508 -0.7229261 -0.016243095 0.00978141 0.6343791 -0.060803518 -0.020639293 -0.29054978 0.2934696
comunicarme 0.013901457 -0.18487324 0.4085108 -0.33242446 -0.0040918975 -0.5281333 0.07541077 -0.1897937 -0.05104705 -0.12128899 -0.3002449 0.22334161 0.33826604 0.17478095 -0.007188849 -0.28644413 0.18873613 0.368605 -0.17564988 0.16754438 -0.1590948 0.48027942 -0.73782045 -0.023907416 0.0023071982 0.64366424 -0.05798048 -0.010499429 -0.2829958 0.2737571
disponible 0.008870367 -0.19499286 0.39302865 -0.33707845 -0.004133938 -0.54649466 0.062495958 -0.18776558 -0.041579492 -0.12801975 -0.29911423 0.22585122 0.34545758 0.1939204 -0.012218808 -0.2716828 0.20658611 0.37805352 -0.19742785 0.1799414 -0.13472407 0.47914845 -0.7451136 -0.028088877 0.0017785822 0.6608636 -0.074433886 -0.028057104 -0.3100777 0.29941884
semanas 0.022298349 -0.19075961 0.40499422 -0.3256957 0.000673906 -0.56379485 0.0738672 -0.2100274 -0.04358588 -0.13285488 -0.32222712 0.25781465 0.33971807 0.18890768 -0.02674855 -0.26936933 0.19201693 0.3766934 -0.20516063 0.17763485 -0.14102757 0.50356966 -0.74645704 -0.016093293 0.0041777045 0.66121936 -0.08543223 -0.01644237 -0.29135063 0.29224327
lumbosacra 0.020603929 -0.18005209 0.364019 -0.30792576 -0.0066612344 -0.50646764 0.06805311 -0.18373549 -0.024987465 -0.11037965 -0.27152616 0.22600728 0.30613708 0.17538445 0.0037837427 -0.25139666 0.16649239 0.31978157 -0.16643961 0.14627194 -0.123684384 0.4373431 -0.6756884 -0.034220632 -0.018339934 0.5972508 -0.0555364 -0.014468039 -0.26305166 0.28563786
usuario 0.011454259 -0.1875191 0.38410515 -0.31766698 0.009774862 -0.5146348 0.08024557 -0.18637085 -0.027112663 -0.09870681 -0.2760247 0.21556614 0.33446646 0.17465009 -0.016103577 -0.26006734 0.19857724 0.33494228 -0.18776731 0.1829916 -0.13460425 0.45720744 -0.7187968 -0.037142433 0.0039612255 0.62332344 -0.08172997 -0.013500704 -0.30270633 0.2920014
valoracion -0.001281135 -0.22057864 0.44387412 -0.37516376 -0.0007288273 -0.5905798 0.08110105 -0.20226349 -0.045283027 -0.12255599 -0.34227082 0.25225556 0.3579689 0.18987517 -0.018468259 -0.31380928 0.2245364 0.39307636 -0.2122615 0.20512867 -0.15087974 0.5149293 -0.79874635 -0.044339743 0.0026003455 0.6884462 -0.08560795 -0.031446125 -0.3170473 0.3004948
autorizar 0.0020292515 -0.2209264 0.44206846 -0.34556222 -0.00044798432 -0.5561866 0.07701504 -0.20097855 -0.019638993 -0.13344342 -0.318239 0.24419054 0.34294823 0.2113569 -0.02732656 -0.27945378 0.18720137 0.40044096 -0.19753425 0.18807642 -0.15949078 0.49596784 -0.7897811 -0.018048113 0.01254274 0.68370223 -0.06635856 -0.031751227 -0.30185077 0.30476716
asignada 0.009520203 -0.18586926 0.39726198 -0.34661335 0.018183166 -0.558012 0.08032377 -0.20303264 -0.05186296 -0.13013862 -0.32172105 0.24785224 0.33975694 0.20234406 -0.012960232 -0.284849 0.19734626 0.35514104 -0.18354794 0.16317628 -0.13580027 0.4898937 -0.75761646 -0.03441585 -0.010220435 0.66495806 -0.08557042 -0.022604926 -0.3021453 0.2980354
solucion -0.002285387 -0.17018683 0.360851 -0.28616294 -0.0058520166 -0.49651048 0.052208494 -0.17595163 -0.048291754 -0.09234344 -0.26243424 0.21802409 0.3164987 0.15289195 0.00021030034 -0.25875065 0.1631341 0.3346054 -0.1867914 0.17644231 -0.132899 0.43575338 -0.6887104 -0.030469889 0.01143719 0.59928304 -0.049419712 -0.029679831 -0.25582254 0.26157779
calificar 0.022502787 -0.19205312 0.39209524 -0.2992797 0.01922458 -0.49965242 0.07490207 -0.17939919 -0.04636335 -0.11302319 -0.28715265 0.23125376 0.29929855 0.16913368 -0.024912823 -0.2447209 0.18424836 0.343439 -0.17176442 0.15822433 -0.1506076 0.45243466 -0.6862809 -0.019402698 -0.009999223 0.60758233 -0.07038211 -0.03626524 -0.29478765 0.286512
planificacion -0.007582383 -0.20930316 0.38830104 -0.3226058 0.0032848078 -0.5484914 0.06446968 -0.20005164 -0.0516872 -0.12786725 -0.2911604 0.2259283 0.3210273 0.20039411 -0.026841305 -0.26581118 0.17687207 0.35279718 -0.19805166 0.17233433 -0.13307388 0.48144114 -0.76134354 -0.034250684 -0.0118963 0.6279467 -0.057359412 -0.041352544 -0.30631188 0.27808595
hombro 0.005158943 -0.17414482 0.36431676 -0.3191462 0.020028047 -0.5103399 0.056399055 -0.18614699 -0.01510122 -0.11926152 -0.28462797 0.22213772 0.29755637 0.17223918 -0.026236739 -0.2572929 0.16765717 0.35516828 -0.17834213 0.16924071 -0.13414621 0.46497372 -0.7170081 -0.039487924 -0.012072123 0.62306064 -0.05213779 -0.011020326 -0.27276018 0.259174
encuentro 0.010781681 -0.17527439 0.38424844 -0.33248246 0.003424529 -0.49977288 0.08244826 -0.19263387 -0.04502091 -0.11181049 -0.2976222 0.23957478 0.32110766 0.18983021 -0.018422173 -0.26153487 0.19814849 0.3329175 -0.18485667 0.18369935 -0.124721594 0.46474144 -0.6984056 -0.034044333 0.014720112 0.61999625 -0.06582257 -0.029130539 -0.29697865 0.28772247
domicilio 0.018148843 -0.21405695 0.42158785 -0.36841705 0.013731726 -0.5555409 0.07732679 -0.18826263 -0.048911303 -0.12307545 -0.31342953 0.25241864 0.3594781 0.20027658 -0.008734745 -0.30481374 0.18834195 0.40077484 -0.21210425 0.19543394 -0.16588438 0.5051611 -0.8048116 -0.017531032 -0.01248292 0.710097 -0.0832327 -0.048095424 -0.32425454 0.31755996
envie 0.019122371 -0.22837727 0.43238065 -0.35655227 -0.0033173093 -0.5826219 0.06637072 -0.20247148 -0.041771997 -0.12011536 -0.348012 0.24052337 0.36145496 0.1884562 -0.024661737 -0.30477172 0.210226 0.3907882 -0.21807656 0.19135854 -0.16954382 0.5350927 -0.8013308 -0.03981786 -0.017503504 0.68290395 -0.08721634 -0.015332912 -0.2984811 0.32513133
envio 0.011038249 -0.21414953 0.42624855 -0.33227423 0.007718402 -0.5428744 0.06562057 -0.21101074 -0.030986397 -0.12962049 -0.33115375 0.23434857 0.36110166 0.1930425 0.0018371127 -0.28018966 0.18916294 0.3729465 -0.1975765 0.17754695 -0.14805715 0.5003556 -0.75109285 -0.035911016 -0.013028933 0.6780746 -0.06722817 -0.035850458 -0.2957602 0.29579774
codigo -0.005924624 -0.19189823 0.40146875 -0.32472995 0.010097909 -0.5177258 0.057581007 -0.18936795 -0.038841788 -0.124195665 -0.31661832 0.23432904 0.32626688 0.1704585 -0.020868415 -0.2526136 0.19349556 0.37106052 -0.19152157 0.16011493 -0.13210198 0.4766539 -0.729424 -0.036066025 0.009856479 0.64946955 -0.05429878 -0.032358274 -0.2941206 0.279541
derecho -0.0019559853 -0.18762034 0.39175653 -0.32906756 0.016542815 -0.5254819 0.084301755 -0.20159647 -0.0151813105 -0.12873669 -0.27601814 0.2288121 0.30113232 0.17186613 -0.004070799 -0.25489318 0.1624679 0.34794956 -0.19151255 0.16524504 -0.12658158 0.44737655 -0.72156847 -0.030904435 -0.019198379 0.6330705 -0.06826498 -0.008530714 -0.29645348 0.27816942
realizar -0.0070983176 -0.2148814 0.43972892 -0.36086732 0.0020073266 -0.57807857 0.07262744 -0.19510426 -0.027484672 -0.12540746 -0.34280124 0.26613712 0.35742807 0.20756799 0.0065711993 -0.3152841 0.21173158 0.40810063 -0.19843516 0.18884414 -0.16695637 0.532667 -0.79701316 -0.006930049 -0.0021621906 0.7123936 -0.06031807 -0.027105277 -0.3221281 0.310515
pasar -0.0063520954 -0.2007468 0.4063402 -0.34367868 0.008293522 -0.53914154 0.06384479 -0.19897504 -0.037171014 -0.11410862 -0.31192258 0.25188375 0.34602687 0.19492604 -0.004792625 -0.27418405 0.19092323 0.36452964 -0.18331094 0.20006566 -0.14357834 0.48833084 -0.773314 -0.029973052 0.01024903 0.68329585 -0.07451216 -0.027101435 -0.31107867 0.29170325
sistema 0.0016717633 -0.19602816 0.42785951 -0.34146035 0.019614007 -0.5431754 0.057766814 -0.18579072 -0.03608985 -0.11709605 -0.3002 0.235571 0.34393835 0.19140959 -0.0011019785 -0.29357636 0.2022096 0.36073452 -0.21526547 0.19080724 -0.14782156 0.48984838 -0.7735952 -0.013657581 -0.013930211 0.67963356 -0.056935612 -0.030461367 -0.3001496 0.28986204
pediatria 0.027352147 -0.19192976 0.43694136 -0.38973585 0.0036072317 -0.5635207 0.08617144 -0.20679241 -0.0535035 -0.14930241 -0.3165877 0.2580428 0.3414555 0.19462655 -0.0035641291 -0.3131391 0.17990364 0.4081025 -0.23701471 0.16871355 -0.15192892 0.5415758 -0.79611874 -0.0016786334 -0.005089589 0.72463816 -0.077353984 -0.012788779 -0.30398852 0.34138674
responder 0.0131968055 -0.14653936 0.3169641 -0.2652999 -0.009939927 -0.4162041 0.055458676 -0.14995977 -0.03302868 -0.076737665 -0.21440624 0.1908921 0.2345405 0.14050905 -0.017783381 -0.20845558 0.1394085 0.26776907 -0.13366893 0.12022045 -0.11307806 0.34655422 -0.5611915 -0.033157587 -0.011678773 0.4801553 -0.046901416 -0.012602522 -0.20962 0.20851716
mamografia -0.007397848 -0.23582764 0.44769546 -0.37465388 0.025121473 -0.6144954 0.087729275 -0.19870776 -0.04021193 -0.115761966 -0.3480883 0.2767976 0.37198737 0.21136773 -0.024588825 -0.32277718 0.20172305 0.4281128 -0.22534789 0.19661665 -0.16259474 0.5366553 -0.8626557 -0.037518546 -0.008834 0.7245346 -0.07427235 -0.053357847 -0.33306387 0.32256776
endocrinologia 0.012413611 -0.19539909 0.36348844 -0.32064027 0.009473222 -0.5094483 0.06947814 -0.18878059 -0.02538964 -0.10249386 -0.29526144 0.23119798 0.3361163 0.17385226 -0.012630959 -0.2561044 0.17784664 0.33897573 -0.17048821 0.17754795 -0.14988267 0.44101194 -0.70525306 -0.021300612 -0.019620836 0.6132046 -0.06922686 -0.0316563 -0.27979007 0.2913739
experiencia 0.009836726 -0.1956184 0.36572865 -0.30666712 0.02019347 -0.4907772 0.07123499 -0.18416768 -0.047268454 -0.09372038 -0.28920957 0.23190539 0.3068096 0.1539031 -0.021824526 -0.23795179 0.16929306 0.3262975 -0.18821329 0.14866881 -0.114786245 0.4214938 -0.669819 -0.008193524 0.015100387 0.58425224 -0.05811703 -0.033006698 -0.2726598 0.27413133
espirometria 0.01555296 -0.21807556 0.41652885 -0.37352264 -0.0077052223 -0.5807526 0.067103386 -0.20305845 -0.04823807 -0.13501455 -0.32808247 0.24396895 0.37150282 0.18643948 0.0064232685 -0.29141065 0.21032304 0.39895242 -0.19821317 0.18672399 -0.13042644 0.4907538 -0.7886599 -0.034040295 -0.02012219 0.68744504 -0.07589538 -0.039014794 -0.3223283 0.3037141
asistir -0.009443472 -0.21216094 0.44399038 -0.3772502 0.016503196 -0.57137376 0.07844343 -0.1925559 -0.048645027 -0.1349194 -0.3386146 0.253259 0.3740086 0.20463075 -0.0003401736 -0.31593713 0.20452487 0.39691412 -0.20394726 0.2007869 -0.17039919 0.54083633 -0.82179576 -0.034273386 -0.002138139 0.7197183 -0.07884214 -0.016397752 -0.33373222 0.3252342
decubito 0.012124683 -0.2264899 0.5002937 -0.37641203 0.014871408 -0.60275126 0.091445066 -0.249208 -0.0489414 -0.08839176 -0.37261972 0.27305603 0.3674054 0.18626495 0.009893185 -0.2690772 0.15843047 0.42720073 -0.19712976 0.19513075 -0.12414141 0.57537866 -0.8666397 -0.034526218 -0.015358639 0.76170796 -0.10356407 -0.04183043 -0.3629434 0.28963777
bario 0.0048487913 -0.24142447 0.49886626 -0.3875046 0.016276777 -0.63724333 0.07590618 -0.23157124 -0.026509047 -0.121343315 -0.39945182 0.2978362 0.382984 0.20026402 0.0058623 -0.2862779 0.1726124 0.4487158 -0.21268971 0.21497694 -0.14478752 0.59206444 -0.88661784 -0.027903738 0.005553685 0.7778824 -0.112069316 -0.046565343 -0.3699824 0.31848624
fechas 0.022856085 -0.20420197 0.41941422 -0.33270663 0.0188924 -0.57190883 0.08242271 -0.18930717 -0.03433735 -0.13353677 -0.3306485 0.2418747 0.36420727 0.18597144 -0.0023384797 -0.2885523 0.20485228 0.35891446 -0.20710099 0.1888037 -0.14234695 0.49740577 -0.76884085 -0.010408771 0.0047128433 0.67371666 -0.085129954 -0.009871682 -0.29383677 0.3045487
debia 0.003714916 -0.19567084 0.43404502 -0.37088493 0.0043030246 -0.5865513 0.08807425 -0.21394092 -0.03380073 -0.14029813 -0.32527795 0.26661754 0.35263655 0.19119518 -0.018241111 -0.28309864 0.19747795 0.39424 -0.21881424 0.18856095 -0.1647862 0.49613082 -0.77559346 -0.017355459 -0.011400808 0.70393854 -0.08518151 -0.03758167 -0.3049195 0.3042497
mesesr 0.0083894925 -0.21930282 0.41091233 -0.35694873 0.013906709 -0.5851356 0.06785646 -0.19214019 -0.032629196 -0.12134306 -0.3277398 0.24353497 0.37044537 0.20767458 -0.007544295 -0.2898239 0.21081544 0.3738342 -0.19335268 0.19001237 -0.143906 0.51918596 -0.77905536 -0.032073516 -0.013653067 0.68294674 -0.063196406 -0.03005285 -0.30741468 0.29897934
pelvica -0.0042898776 -0.20167108 0.37427846 -0.31982154 -0.005365869 -0.5035285 0.07883668 -0.1840913 -0.05074417 -0.11502062 -0.28252664 0.24797595 0.32229805 0.18662065 0.007969966 -0.25109935 0.19896434 0.3386133 -0.17303777 0.15701512 -0.12823214 0.45601067 -0.713147 -0.039620746 0.006984232 0.63768595 -0.05593051 -0.02603463 -0.30410928 0.27857876
profesional 0.023454312 -0.2218833 0.4321614 -0.34940368 0.014264255 -0.5722639 0.06165681 -0.21087024 -0.02832463 -0.10963314 -0.3440668 0.26251176 0.36706126 0.20780236 -0.021147698 -0.31116173 0.2080109 0.40862745 -0.21347076 0.1989007 -0.14514092 0.5008825 -0.81416196 -0.034537774 0.0039609605 0.6873643 -0.057900637 -0.024536144 -0.3133937 0.3035589
puedan -0.0077227885 -0.23243387 0.45894042 -0.36365488 0.0021183507 -0.60877 0.07096592 -0.21461691 -0.05427932 -0.14011092 -0.36432007 0.279666 0.38304308 0.20146205 -0.0039580246 -0.31120458 0.23363976 0.4203023 -0.20200174 0.18852873 -0.14914937 0.53936076 -0.8365493 -0.0073708463 0.0070011877 0.7491735 -0.07327317 -0.029871916 -0.33993885 0.33218583
edad -0.009289819 -0.16949415 0.38432267 -0.296842 0.013600936 -0.5121863 0.064235166 -0.17365919 -0.020475764 -0.09799484 -0.2883042 0.22927706 0.3133537 0.15396613 -0.0044417907 -0.2595844 0.18739422 0.33667815 -0.16668111 0.17446592 -0.13962123 0.4481021 -0.67679816 -0.004927395 -0.0045592207 0.6021436 -0.052029137 -0.011407394 -0.27053863 0.26710472
personas 0.004282289 -0.20967342 0.38462543 -0.31923336 0.003530079 -0.54056627 0.07100979 -0.19405736 -0.038783137 -0.1002458 -0.29290754 0.25151047 0.32453814 0.18387042 0.0069181044 -0.2859239 0.19218859 0.36336696 -0.18196404 0.17047934 -0.15305893 0.46604645 -0.74275935 -0.03209386 -0.009699214 0.62608427 -0.052737262 -0.024231093 -0.29904428 0.30069426
abdomen_total 0.005568935 -0.18489788 0.3352422 -0.29993743 -0.0020620346 -0.46853173 0.0628319 -0.159615 -0.038478486 -0.08857118 -0.2538892 0.19986409 0.2864387 0.16839859 -0.010275505 -0.24308704 0.17662613 0.3026542 -0.1591918 0.16672574 -0.1187388 0.41289675 -0.6573937 -0.020022657 0.009919571 0.55462956 -0.06533193 -0.009978355 -0.2627018 0.25875592
importa 0.0027606208 -0.22450523 0.434641 -0.35255674 -0.0048172274 -0.5747812 0.07894818 -0.18957044 -0.032172747 -0.13094044 -0.312703 0.2658315 0.33658308 0.20526268 -0.0007191931 -0.27387294 0.18355663 0.37915102 -0.20262843 0.17060699 -0.15101115 0.49185494 -0.77731293 -0.040995106 0.007881295 0.6893548 -0.07437845 -0.01535307 -0.31881776 0.31774437
procedimiento -0.002680123 -0.1953081 0.4074786 -0.35877156 0.009618694 -0.5832317 0.09184008 -0.18673626 -0.05002765 -0.13545465 -0.31237328 0.2578449 0.35010815 0.18241741 -0.019609762 -0.2925566 0.18875766 0.37907523 -0.2155833 0.20292138 -0.1455973 0.50229084 -0.77327204 -0.024614338 -0.015063513 0.6897585 -0.06335121 -0.022048123 -0.32666707 0.3016125
confirmo -0.003530983 -0.2256577 0.4227908 -0.3528986 0.0032560239 -0.5887093 0.09319416 -0.214467 -0.05179109 -0.1293764 -0.3268201 0.2588296 0.37593752 0.20214331 -0.020073721 -0.30722213 0.22068796 0.39115205 -0.21610843 0.1956569 -0.16850288 0.5072014 -0.8051541 -0.043037254 -0.010085518 0.71040934 -0.05747372 -0.016289206 -0.32101172 0.3315876
quede 0.019645263 -0.17555144 0.323581 -0.28471702 0.020987744 -0.44191658 0.05932073 -0.14866683 -0.0354177 -0.1019255 -0.26368862 0.20814374 0.2725429 0.14127456 0.005278776 -0.24102753 0.17503369 0.30142632 -0.15009816 0.13663626 -0.11437794 0.41635036 -0.6396781 -0.0139116915 0.0050344076 0.54451716 -0.041677848 -0.03187852 -0.24543074 0.24294671
atenta 0.005371039 -0.21694842 0.39814758 -0.35956436 0.0009333112 -0.5404801 0.07780893 -0.20266394 -0.05478681 -0.12407743 -0.31029806 0.26061666 0.35721353 0.20060426 -0.0017214785 -0.28440627 0.1953334 0.38258713 -0.19299151 0.17207931 -0.13915001 0.4987659 -0.7549918 -0.03656265 0.013021662 0.6580342 -0.08500545 -0.016863132 -0.30157465 0.30325177
pacientes 0.016887343 -0.20448938 0.37413898 -0.33863497 0.003293067 -0.52828336 0.051687956 -0.19613865 -0.0304859 -0.12461283 -0.29117134 0.2320475 0.32395825 0.16669737 -0.0034981752 -0.26855284 0.19391471 0.3604262 -0.1769411 0.15834531 -0.15623452 0.46680227 -0.72438973 -0.025922252 -0.007773432 0.63233995 -0.053206436 -0.01699204 -0.28568804 0.2765953
mejorar 0.021213321 -0.17842124 0.38845232 -0.31085184 0.011888566 -0.5175575 0.052427337 -0.18644792 -0.034243435 -0.10738995 -0.30560872 0.21971078 0.32237384 0.17064637 -0.002650761 -0.27165022 0.18608911 0.36175457 -0.19311902 0.17417347 -0.12987213 0.44627115 -0.69587374 -0.0229284 -0.0136322295 0.6181744 -0.05198986 -0.018554993 -0.27256626 0.2889924
familiar 0.024107764 -0.20300132 0.4029764 -0.33855382 -0.003462999 -0.5652798 0.057990298 -0.17909709 -0.03559587 -0.1258662 -0.31476688 0.2428011 0.34267628 0.20203315 -0.003967635 -0.2684365 0.1816485 0.37048185 -0.20312738 0.19275354 -0.13237241 0.49208128 -0.7715664 -0.029402453 0.008113961 0.6577093 -0.0683641 -0.025770534 -0.31359652 0.31762028
deben 0.011243949 -0.18076824 0.4021666 -0.3282172 0.020157408 -0.53376395 0.071868606 -0.19453153 -0.02755799 -0.121330954 -0.31341225 0.22735256 0.3371789 0.17923489 -0.026104353 -0.26498562 0.1881785 0.3616008 -0.1821188 0.16681084 -0.12848818 0.48361152 -0.7298475 -0.029593306 -0.005443444 0.63372374 -0.07202382 -0.03267821 -0.2889274 0.29418448
atienda -5.827358e-06 -0.13613117 0.30315083 -0.256171 0.0077026547 -0.40687802 0.045812234 -0.15494126 -0.040195785 -0.06933644 -0.24361141 0.18264669 0.2506471 0.15367374 -0.0074317665 -0.20674883 0.13487005 0.28869104 -0.15969822 0.1448906 -0.09861625 0.36140746 -0.5665114 -0.014024848 -0.012295851 0.49304286 -0.04769902 -0.014469339 -0.22289215 0.21459417
factura 0.019797083 -0.23049577 0.42442766 -0.34482083 0.019085316 -0.5784293 0.06988866 -0.1937813 -0.04776541 -0.13789648 -0.31492668 0.26065138 0.37461084 0.18718557 -0.012058438 -0.29034558 0.21026434 0.38980603 -0.20074825 0.17742261 -0.14282335 0.5160237 -0.8128783 -0.021527357 0.016774816 0.6846784 -0.070352815 -0.03423868 -0.32932696 0.31973666
necesitamos -0.002425187 -0.21530764 0.42491075 -0.34633788 0.01966156 -0.562361 0.08027075 -0.1945983 -0.043777764 -0.11344545 -0.32039642 0.2444932 0.3410769 0.18714008 -0.0050748237 -0.3005875 0.19674279 0.37713262 -0.18280183 0.1826516 -0.15852354 0.5147332 -0.7721258 -0.03194387 -0.015898544 0.6639382 -0.06529614 -0.010682562 -0.31071162 0.29021052
oblicuas -0.002800347 -0.22219813 0.50372094 -0.4001116 0.0024442852 -0.64339966 0.10707577 -0.2572474 -0.0251636 -0.09704117 -0.3982968 0.28266412 0.39159206 0.20958787 -0.014601112 -0.28726268 0.17634465 0.43418577 -0.20164552 0.20654166 -0.13552935 0.5943978 -0.92172533 -0.024520058 -0.0111817755 0.8049047 -0.11496319 -0.044286583 -0.39814734 0.30448252
articulacion 0.027125245 -0.18056414 0.40896004 -0.347213 -0.0021809568 -0.5047049 0.08355221 -0.17917912 -0.019451723 -0.09894963 -0.3031018 0.21793717 0.3013356 0.18599817 0.016426016 -0.25911573 0.1535339 0.34706113 -0.16143948 0.16068408 -0.12661089 0.46464264 -0.7064274 -0.019178463 -0.020480983 0.6217067 -0.060382888 -0.017190292 -0.28513563 0.26830095
laboratorio -0.009120124 -0.20372963 0.39499706 -0.33056813 0.015399823 -0.5241218 0.075181074 -0.16802803 -0.037943635 -0.101180285 -0.30710033 0.24358599 0.3353324 0.18786256 -0.0065385164 -0.26528093 0.19859065 0.36448574 -0.17430522 0.18574032 -0.15436177 0.45343617 -0.72090036 -0.010378877 0.005074047 0.62691796 -0.060222603 -0.04528174 -0.30364975 0.28766835
pueda -0.007049594 -0.18915619 0.40100557 -0.34422228 0.021957748 -0.54737645 0.081997156 -0.18264978 -0.023823865 -0.11444158 -0.32035327 0.24336022 0.34184465 0.19633156 -0.017995264 -0.28636637 0.20030673 0.36672378 -0.17660958 0.1611493 -0.15857005 0.4784166 -0.723049 -0.010481767 0.007769499 0.64324695 -0.06521757 -0.041198365 -0.30510625 0.27993572
prenatal -0.007914292 -0.21058464 0.40523684 -0.35514936 0.006121064 -0.5655747 0.05387032 -0.21118376 -0.020905124 -0.12461314 -0.32065326 0.23772159 0.350835 0.17263803 0.0036103374 -0.27960676 0.20563582 0.38750312 -0.18113582 0.17456704 -0.16178101 0.4967504 -0.7755513 -0.039246682 0.010641585 0.6725135 -0.07673917 -0.03209376 -0.313263 0.31770456
citologia -0.00050409243 -0.19571985 0.3727775 -0.30925882 -0.00030241298 -0.4726329 0.07065578 -0.17069934 -0.020750511 -0.09493674 -0.27287653 0.22436538 0.31121808 0.16685194 -0.010771777 -0.24219719 0.15635574 0.31678614 -0.15878083 0.14586747 -0.1203982 0.4439229 -0.68736845 -0.029744025 0.0015497352 0.57785666 -0.057580777 -0.014632992 -0.2701749 0.25763673
rapida 0.022544984 -0.1751617 0.34727612 -0.316187 0.0048117153 -0.48155925 0.075561225 -0.17579578 -0.031835165 -0.10212592 -0.27324697 0.22458929 0.28634962 0.15447366 -0.00066000817 -0.24934535 0.16838835 0.31978434 -0.17325433 0.1722256 -0.14536013 0.4180293 -0.68930143 -0.03088793 -0.00021395588 0.5835788 -0.051423904 -0.0077835494 -0.28186584 0.2591314
medicos -0.010315383 -0.21472684 0.41644818 -0.34555292 0.012296499 -0.56633294 0.05907774 -0.19203256 -0.03297216 -0.11003082 -0.32386744 0.24932024 0.3526402 0.18722756 -0.0059610466 -0.27924913 0.2038964 0.39107373 -0.19206208 0.17597441 -0.1676121 0.52505827 -0.8046113 -0.028929384 0.007234401 0.6981179 -0.06076398 -0.037378687 -0.3170789 0.31836647
colaboran 0.022458792 -0.19698723 0.39947367 -0.3538462 0.004026249 -0.5331896 0.08064513 -0.19824234 -0.020804258 -0.101436354 -0.3113425 0.23101892 0.32230964 0.20083511 -0.02077544 -0.29097354 0.19143 0.3808338 -0.1969815 0.16510823 -0.13230388 0.4898496 -0.74170744 -0.021230679 0.0067234556 0.6360536 -0.057867814 -0.0077536716 -0.28644547 0.30295694
jueves 0.017841779 -0.21714672 0.43014547 -0.33062658 0.011197007 -0.5730649 0.089882135 -0.18208078 -0.053177956 -0.10446653 -0.31624117 0.25274456 0.3444651 0.1848127 -0.02404725 -0.27282095 0.18931888 0.37708303 -0.20284544 0.17236042 -0.15735929 0.5025705 -0.7907001 -0.02476711 -0.02061744 0.686956 -0.05563598 -0.020618526 -0.31715423 0.28099275
datos 0.014014302 -0.20478071 0.4078351 -0.31684583 0.017672285 -0.5286774 0.08378249 -0.19834866 -0.044765268 -0.11557787 -0.30241066 0.233467 0.3427171 0.18585652 -0.007970466 -0.28789812 0.17623653 0.3475723 -0.20384248 0.18605655 -0.14973696 0.4932467 -0.74144274 -0.02697082 -0.018003508 0.6539125 -0.08233832 -0.0394428 -0.30220357 0.284509
faca 0.017082011 -0.19320126 0.359866 -0.3020616 0.005777115 -0.5030588 0.05648007 -0.17998946 -0.023450986 -0.11554721 -0.2930305 0.21647008 0.3148844 0.15909621 -0.0076436866 -0.24160612 0.17249852 0.32682097 -0.1610784 0.17320433 -0.14991684 0.42854482 -0.688523 -0.03585067 0.014474796 0.5991199 -0.057463817 -0.028834946 -0.2593953 0.27659923
siii 0.010019375 -0.19300884 0.36389852 -0.32129627 2.8533686e-06 -0.4967581 0.056931064 -0.16912176 -0.038031757 -0.09312173 -0.26389602 0.21484861 0.30902687 0.1679796 0.005027488 -0.25193554 0.18534283 0.31891128 -0.1797382 0.15062657 -0.1455317 0.4521828 -0.66280407 -0.0063089565 -0.012771895 0.5986969 -0.06562569 -0.028805133 -0.28322226 0.2513829
nesesito 0.0075772973 -0.17344213 0.38319418 -0.32198092 0.023199273 -0.5200241 0.060001247 -0.17206728 -0.04259756 -0.0966714 -0.29505277 0.23310788 0.33420387 0.17088886 0.0042404314 -0.25193062 0.18547055 0.36862087 -0.16758767 0.18207929 -0.15302758 0.4503955 -0.72875637 -0.019219914 0.0069148294 0.64174706 -0.07872524 -0.014475417 -0.27014297 0.2711608
aparece 0.015012105 -0.18814094 0.42536044 -0.34267363 0.024306744 -0.56513256 0.057384428 -0.18597324 -0.028988408 -0.12501009 -0.30843997 0.24391268 0.34558633 0.19342998 -0.011391941 -0.27710062 0.20051415 0.38410863 -0.20801802 0.1933222 -0.14806892 0.49489745 -0.776306 -0.03833368 -0.011470399 0.65162915 -0.07138697 -0.030068291 -0.31394652 0.28586307
contestaron 0.010477599 -0.14632481 0.28132656 -0.23887166 -0.003164055 -0.399643 0.047688067 -0.12837803 -0.029552868 -0.081848726 -0.21078673 0.159471 0.23311442 0.12223109 0.0027037645 -0.21235882 0.13055636 0.27702233 -0.13282514 0.11676148 -0.090848364 0.33434325 -0.5469112 -0.02897529 -0.012778137 0.45690376 -0.033354502 -0.031961314 -0.20110027 0.22088331
solicitares 0.018000396 -0.17018518 0.3347421 -0.28492716 -0.00023070573 -0.44967273 0.06892123 -0.17778662 -0.03582513 -0.08740208 -0.26913065 0.203283 0.29330394 0.15611033 -0.017173054 -0.23235303 0.1778373 0.31180236 -0.1774065 0.1389165 -0.13668504 0.4140057 -0.647523 -0.036448963 -0.006262225 0.57148004 -0.06497653 -0.023497494 -0.27033186 0.23497163
psiquiatria -0.005844938 -0.18885615 0.3850139 -0.32501116 -0.0006602123 -0.5099352 0.07617112 -0.16772477 -0.03494409 -0.12349372 -0.29564553 0.24242985 0.3279383 0.18970378 -0.018070323 -0.26934764 0.19770794 0.33521184 -0.19224852 0.18844372 -0.15080583 0.4788658 -0.72647786 -0.039794296 0.008522494 0.62707144 -0.063155 -0.021235574 -0.3037658 0.2819419
mensaje 0.014321435 -0.21293497 0.4359999 -0.33625168 0.018044233 -0.56236124 0.06203704 -0.18293233 -0.045746017 -0.101858236 -0.32508135 0.2410331 0.3320357 0.20961513 -0.013986163 -0.27908984 0.1984392 0.3977486 -0.20490061 0.19079123 -0.1514034 0.5180019 -0.7750267 -0.0100079 0.008176421 0.67881566 -0.08047523 -0.023879107 -0.2983963 0.2897372
pelvica_ginecologica -0.015638841 -0.1783094 0.38967612 -0.31587154 0.0124679785 -0.523449 0.060098004 -0.1785509 -0.05128304 -0.12016816 -0.28888643 0.2441537 0.3346015 0.17057133 -0.017664842 -0.25820234 0.19435404 0.37357682 -0.19039036 0.18245104 -0.15442446 0.47764012 -0.7455676 -0.038625926 0.017018309 0.6411987 -0.06654355 -0.010110626 -0.29708263 0.27261913
bilateral 0.001672636 -0.19132246 0.43274537 -0.3533506 0.0012908048 -0.5650646 0.0810365 -0.1998988 -0.05109003 -0.13752553 -0.31465766 0.25843135 0.34385604 0.19232935 -0.022271855 -0.2962505 0.19084133 0.40155616 -0.2176602 0.20436893 -0.1390225 0.49277318 -0.8011361 -0.015535622 0.0022066662 0.66141486 -0.07562833 -0.043894965 -0.321915 0.31383917
piden 0.023861162 -0.21452211 0.38866642 -0.33873722 -0.010411829 -0.55008715 0.087514095 -0.20105776 -0.03268819 -0.12849149 -0.31462312 0.25994954 0.34899464 0.17759891 -0.012308375 -0.282875 0.19895695 0.37055653 -0.18529616 0.1699228 -0.14898337 0.48826978 -0.7687782 -0.018141948 -0.004217136 0.6418227 -0.06015252 -0.032447096 -0.290108 0.28007278
nuevamente 0.008586474 -0.18920887 0.35677502 -0.29521662 -0.0060432893 -0.49385992 0.04838197 -0.18623145 -0.030196907 -0.09463185 -0.26668787 0.21743192 0.30358252 0.15956241 0.0023960397 -0.25497726 0.18255883 0.33438876 -0.18530545 0.14858583 -0.14779405 0.43307957 -0.68287957 -0.0064186826 0.005816137 0.58006996 -0.0747483 -0.035602503 -0.2548342 0.24397455
optometria 0.0038185297 -0.18498974 0.37144715 -0.324161 0.0011267748 -0.5042171 0.051205322 -0.16361018 -0.022282373 -0.08742685 -0.27316138 0.208397 0.3132034 0.16903405 -0.0024790308 -0.24907373 0.18497853 0.34109065 -0.17938732 0.15321618 -0.13490744 0.42059395 -0.69001645 -0.009745409 -0.0143113425 0.6074576 -0.059057124 -0.041549537 -0.27981323 0.2674542
senores 0.004893733 -0.18935907 0.33264345 -0.29672602 0.007493715 -0.46476036 0.053766664 -0.16449487 -0.018522466 -0.11016605 -0.25772095 0.21368761 0.29274043 0.17283025 0.00786452 -0.22403847 0.14969507 0.31292617 -0.159648 0.14433159 -0.12920439 0.42648906 -0.65920025 -0.009936782 -0.0008711393 0.5736103 -0.06864825 -0.03218396 -0.24338359 0.26367724
dermatologia 0.022888709 -0.1713986 0.37528104 -0.2956942 0.0075501744 -0.48365194 0.06199816 -0.1817837 -0.015746513 -0.111531526 -0.2907534 0.22368889 0.31473473 0.16050796 -0.016807193 -0.2612339 0.18626328 0.33126763 -0.17541356 0.1576892 -0.13598523 0.4121862 -0.6589643 -0.016752316 -0.004786302 0.5939987 -0.06801379 -0.019151399 -0.2521795 0.24754283
cambiar -0.006675997 -0.20158082 0.3855589 -0.32408112 0.0032696947 -0.5179953 0.0670196 -0.16976419 -0.029033674 -0.11895178 -0.296542 0.2369218 0.32232937 0.19403367 -0.022086954 -0.28109047 0.20235023 0.36946952 -0.17640148 0.16539745 -0.1505713 0.48526388 -0.7392771 -0.038598735 -0.009791069 0.62110984 -0.06435417 -0.015072095 -0.28837425 0.27585363
urologia 0.004652629 -0.19028729 0.37796175 -0.3375616 0.022099737 -0.5175947 0.07177542 -0.1938546 -0.039188486 -0.12417845 -0.28913096 0.22750576 0.3258299 0.1903859 -0.022700362 -0.2625846 0.19268885 0.3425542 -0.17471631 0.16627577 -0.15347889 0.46529964 -0.71679074 -0.035893872 -0.008319132 0.6142808 -0.07625544 -0.041865885 -0.30137223 0.27418032
